1.368544,-1.2532467,-5.0708733,-8.04986,-9.357355,2.2356987,-10.140759,-9.649636,-9.428527,-7.968329,-13.028746,2.3691542,-8.188302,-4.9938955,-2.1717584,-6.6180673,4.782154,3.6726544,6.1770597,2.116346
-0.89750284,0.8117122,0.22954543,2.2940798,-2.9980078,-0.631849,-0.06940407,-1.0719243,-0.87324005,-0.32221347,-1.0880136,-1.2790482,-1.7513857,-1.2411349,-0.8119168,-0.5120932,-0.9090735,-1.2422833,-1.3713598,-1.1894369
-2.9217625,4.967739,-3.453702,5.880534,-6.136625,0.71352816,-3.8549125,4.4658275,-6.706703,-4.629246,4.971871,-5.817551,0.21933757,-6.322458,-1.1948649,0.4529457,0.022868065,5.033321,-7.5560837,-5.0441256
2.257763,-4.287777,-5.1489453,1.2439157,-1.0289955,-9.261043,-3.497714,1.2632848,5.569382,4.294182,-7.209247,-3.1517122,-6.985313,-7.3902407,-8.002443,3.0630627,-1.736699,-4.428795,-9.571449,3.4440477
-1.5042071,0.5607382,1.2029047,5.1490574,2.2299173,-0.41987514,-0.9749582,-5.838003,0.8878234,-1.5414134,-3.1641695,1.3837298,2.5735428,-4.923448,2.6062963,-7.46129,-1.6670662,-0.46422598,-0.25157636,7.5387206
-1.0491326,2.0344634,2.5191722,-1.854589,3.9706476,-9.870136,-8.001832,-12.054492,-6.8987803,-9.420836,-6.89173,-6.7178197,-8.87259,2.5737922,-8.939556,5.8441124,-8.628331,1.9327577,-1.9035647,6.9094596
-0.91195124,0.4849211,-0.19792734,3.04519,-1.8468136,1.1180745,-0.6502824,-0.82907706,-1.2046636,-0.84540224,-1.1707095,-1.4789197,-1.4303256,-0.26133716,-0.9843605,-0.22119355,-1.14259,-1.1549516,-1.2928113,-1.078546
-1.1645803,1.9438537,0.56593144,-3.2261755,-3.4463017,-0.95823,-0.317066,-1.871927,-1.3167444,-1.5507052,-3.392445,-1.472515,-6.0765395,-2.9520564,-2.4312885,0.026634317,-1.1549519,-0.9528418,-1.7634524,-1.6844106
-0.9133034,0.7089056,0.37378874,2.9356384,-0.7071063,-0.1137578,-0.55791324,-0.8794546,-0.97881454,-0.7784399,-0.87207365,-1.2837512,-1.0418042,-1.0220779,-0.5445022,-0.208663,-1.2103002,-0.918049,-1.25607,-0.9777032
-0.4953438,0.29870957,2.901344,-4.5462756,2.7463799,5.112677,-0.43530294,2.6422148,-5.263458,0.48137784,-4.243299,2.2375388,2.8667996,-2.8120441,-4.821295,0.9174772,-0.5125457,-1.2091494,-2.2293684,-3.296505
0.2644412,0.05369518,0.77018416,-4.2352138,-0.6363147,0.60549164,-0.6101588,-1.0410742,-1.0367507,2.400657,-3.160229,-1.0023134,0.13155857,-1.3101169,-0.98227423,-0.84001845,-0.962059,-1.0105908,-1.4599819,-3.137906
-0.8642805,0.81931853,0.7676922,-1.8677746,-0.78706723,0.8604826,0.8888705,-0.8036098,-0.93923545,-0.6625715,-0.99616957,-1.2278473,-0.8380419,-1.085087,-0.6994681,0.6468468,-0.95234144,-1.170143,-1.2663221,-1.0425222
-0.1271797,-0.02878705,1.8699076,-4.0985394,3.1655092,-0.6862368,4.6409945,-1.1739769,-2.7268384,2.1227982,5.669072,5.9021635,-3.9966452,-6.6347504,-1.6387537,-3.1582696,-2.5305753,4.9067245,-6.1898446,-2.475124
0.6859662,-2.9825768,5.3149004,-1.4013987,-3.9082758,-4.4811816,5.263467,5.7812123,1.167914,-2.602607,2.1395633,-5.969582,-4.1358438,2.0487509,-3.8700547,-0.4110657,4.656469,-9.187312,-1.9757433,-2.3400168
-0.15754513,1.3486127,-4.109225,0.78605855,-4.551756,1.0994489,0.04390291,-3.4076884,3.7100177,3.8097208,-3.0810676,-0.9405539,-4.555458,-4.2386055,-0.30923963,0.88274354,-1.7351658,-0.8938255,-1.6139524,-4.479449
-0.92261374,1.0885805,1.1316477,4.099673,-4.6430297,-2.4485714,-1.6087197,-0.5872581,-1.0657998,-0.44503388,-0.998925,-1.231499,-5.6286273,-3.5622737,0.8323305,-0.4167737,-1.2179637,-1.1660885,-1.4186052,-1.0615647
2.954203,-2.5651786,-5.6039476,-0.5373964,-4.238619,-2.4711523,-3.1699667,3.8698182,-9.05479,-5.9286013,-6.6245995,-6.08711,-2.8313084,0.6046244,1.8910758,1.7411344,-4.7004557,0.71723264,3.842273,-4.377974
-0.14697625,0.22294025,0.12626192,5.6151285,4.658895,0.5956616,3.8815,-5.8534927,-5.4842787,-5.9821506,-9.725318,-3.2907107,5.5219812,-3.0174696,-6.686641,-6.6556325,-10.247054,-9.409917,-7.973867,-5.645132
2.5744448,1.6945812,-0.57005703,-5.1774163,4.6517262,4.52175,-6.62914,-5.8188643,0.6888752,-2.9106255,-4.1238484,-6.8605113,-8.501351,-3.868043,7.000297,-2.6735854,1.2339169,-4.332771,-7.4598994,-0.016590942
-0.9175005,0.57842314,0.70208347,2.317948,-0.5181793,-0.42593482,0.33915162,-0.8726245,-0.9398859,-0.8049414,-1.042608,-1.1566316,-0.9949565,-1.3309249,-0.84251124,0.08955824,-1.0066007,-1.0844167,-1.235997,-1.0552813
-3.3345401,2.301175,6.1138387,-1.3689615,-8.7031765,4.46985,-6.048615,5.8041754,-1.4587883,5.0125546,-4.364403,-3.2999732,0.1990734,5.565557,-1.8482147,-4.711678,-3.2217848,-2.6479974,-6.297851,-7.7822056
-0.9042768,0.6302238,0.1899585,2.317502,-3.2880127,0.54058945,-0.35891268,-1.1003257,-1.1005851,-0.67976534,-1.0028117,-1.2993473,-1.1356044,-1.1008064,-0.8555094,0.6337608,-1.0435632,-1.2514166,-1.287099,-0.972479
-0.8741633,0.7970926,0.8661243,-1.4966412,-0.70743054,0.411071,2.8330002,-1.0163904,-1.0151122,-0.60685486,-1.1227317,-1.225207,-1.1191946,-0.9208423,-0.7756926,1.2488667,-1.0682431,-1.2003789,-1.3189749,-1.2781591
-0.83850753,1.1158357,-2.6249156,-1.5323565,-4.828935,-1.7037114,3.1977353,1.0852636,-2.843338,-1.2339046,-0.5628405,-0.4521841,-2.9358926,-3.4628196,-0.7648675,-3.2282856,-3.77662,1.6572582,-3.059517,-2.6616309
-1.2168002,0.44568408,2.9108431,-5.2408557,-6.4379764,0.83035254,-2.2547874,1.9224808,-2.8761342,1.885618,-3.2008753,2.4592881,-3.662601,-7.3375964,4.536866,7.192774,-0.2832327,-5.9139185,-6.6170635,1.4686956
-0.92079294,1.0946546,0.9559417,0.402813,-1.5245737,-1.3389719,2.4141216,-0.9213214,-1.0364944,-0.7749847,-1.0449082,-1.2084526,-1.9736781,-1.1990651,-0.0141447,-0.83671266,-1.2940665,-1.1786138,-1.3510177,-1.9823437
1.5155536,3.1349056,-4.7295976,-8.441856,-9.06129,-8.304881,-2.1867511,-8.31821,-7.654785,4.3387237,5.276871,-8.58543,1.2599509,-1.077839,0.063166,-6.8638487,-4.6559024,-6.454831,5.1888394,0.41418657
-0.8523337,1.0280646,0.50661707,-2.032066,-0.9540866,0.7135112,-0.5904621,-0.87953985,-0.91427785,-0.81139827,-1.0324833,-1.0838814,-1.3946937,-1.2300158,-0.8784455,0.16992357,-1.1375276,-1.1201928,-1.227308,-0.9902191
-0.48724067,2.0118835,3.113287,-7.2350483,3.185333,-4.017619,-4.2027903,-3.3307388,-1.122265,-0.35153288,-1.6596146,0.03096716,-1.8991576,-2.4496965,-0.2301658,-1.0296644,-2.7143307,1.0038953,-1.1822668,-1.0751975
-0.88883024,0.568891,0.30337447,2.039998,-1.3317798,-0.0399727,1.1917323,-0.79867584,-1.1266812,-0.78082305,-1.2034307,-1.1249045,-1.0072147,-0.9703795,-0.806766,-0.27725133,-1.0347059,-0.981035,-1.206144,-1.0871055
-0.85317785,0.7961042,1.0919613,-0.67402714,-0.73837405,-0.08649322,0.32321042,-0.7322333,-1.2257552,-0.6680876,-1.1398547,-1.9620599,-0.9696229,0.5579886,-0.7532037,-0.15614355,-1.1732508,-1.1188223,-1.4383373,-0.85819244
0.62199557,1.2393447,4.4794025,-3.0658212,2.939979,-1.6771593,-3.4147546,-5.00006,5.7565465,-0.06796584,-3.1661592,-2.3613846,-6.343368,1.4377621,-5.1810207,-0.40567386,3.097428,-3.5657911,-4.703581,-8.4168005
1.6758773,-1.479008,-4.6604056,0.672744,-2.9737082,1.9190232,-2.4026978,-4.708425,1.221191,-2.646904,-5.0659156,0.021957867,1.0525761,6.4186153,-3.854196,-4.1171284,-6.276445,2.627244,1.9991536,-2.3396459
-0.9148654,0.56011236,0.20836851,2.306457,-0.16458708,-0.41976777,-0.4197683,-0.93294257,-1.189039,-0.7489722,-1.1206509,-1.3480949,-1.0840662,-0.98458976,-0.6680569,-0.06837806,-1.0591742,-1.0365338,-1.2678998,-0.9939729
2.3109314,-0.46359712,-0.9026541,-7.144973,-3.751361,-1.6687084,-0.7961288,1.9375778,-5.1731567,-3.1677444,-1.4371825,1.9047284,-3.0614696,-3.7720041,-1.2418736,-3.5477693,-3.518252,0.3033094,-5.3324933,-2.9240835
-0.87805986,0.88189197,0.9481847,-1.9848346,-0.9819993,0.84876,1.5767621,-1.0380195,-0.9584888,-0.6499592,-1.0581367,-1.2388532,-0.81814826,-1.0888382,-0.7729595,0.52248555,-1.1124796,-1.0602142,-1.2655761,-1.0021807
-1.2749884,0.8243965,-0.70164406,5.6741424,-1.0652905,-5.2239203,3.0280623,-5.062978,-2.882934,2.3593225,-0.9521081,1.1686245,0.7887191,-2.4561937,-1.0858803,-1.8829981,0.5612672,-2.0238497,-5.1389704,-3.7599053
-0.35469478,2.815681,-4.6306105,-3.5283513,0.24387926,-4.785285,0.077925116,2.7778735,-7.9689045,-2.307608,-4.0222573,-0.44552082,4.1219435,-5.1250253,-0.60735077,3.2314901,-0.157755,0.64982104,-6.6563096,-4.2384486
-0.8618134,0.5880106,0.69399256,3.0870984,-0.33057874,-0.5383948,-0.6721781,-0.8629388,-0.98543245,-0.6643092,-0.9800011,-1.1961408,-0.59362125,-1.3502495,-0.49682802,-0.3616694,-1.1787492,-1.1306168,-1.2600778,-0.9523798
-1.0026791,2.1141434,-3.0416446,2.4829621,1.9898407,-1.0220355,1.702133,-2.7596571,0.52505267,-0.06625129,-2.8406615,-1.5692558,-7.408188,-4.8229375,-2.3069782,0.6423241,-7.616336,-2.0960896,4.1916428,-3.6651344
-0.9128933,0.87900317,2.0267365,-1.8003781,-2.3923697,-0.5044605,2.7838116,-1.2127601,-1.0103078,-1.3705585,-0.99170315,-1.1696452,-3.4386187,-0.857675,-1.1074576,1.3611026,-1.1362282,-1.092,-1.384984,-1.0421953
-0.8933842,0.7986326,1.3383996,0.7510763,-3.0582392,0.22684696,-0.9177046,-0.97520816,-1.0617687,-0.42923796,-0.9355377,-1.2564788,-1.5002792,-1.2247301,-0.08356912,-0.66531456,-1.1471776,-1.01725,-1.2609062,-1.0991999
-0.9134254,0.73460525,0.10588713,5.599021,-3.9144838,-0.4982472,-2.7504501,-1.5899323,-1.124131,-0.5535932,-0.8750152,-1.3332509,-1.1734759,-0.8401954,-0.65396667,1.7838992,-1.1271714,-0.95483834,-1.2638453,-1.1682488
-0.8350956,0.8873991,0.9349335,-1.31282,-0.545384,0.76688933,0.022758162,-0.7217332,-1.0929341,-0.59424806,-0.8692453,-1.1793114,-1.1410778,-0.96932566,-0.7781688,-0.24748644,-1.1081263,-1.0455995,-1.1011393,-0.9276649
-0.8957867,0.50290275,-0.08923596,5.5131745,-3.947565,0.05036466,3.7537518,-0.95308226,-1.1007702,-0.6311101,-1.216542,-1.0777609,-1.2101557,-1.1012455,-0.68385375,0.25915936,-1.0455526,-1.0974331,-1.2671268,-0.97517157
0.022668347,1.2377586,0.77404535,-4.392474,-0.9176837,1.3054929,3.7573097,-1.2784883,-3.1183746,-2.5937932,-4.170294,-1.3007529,1.3701173,-4.5401473,-5.5308867,-3.7319913,-0.015547017,-1.8237062,-1.7197846,-3.2831876
-0.91005063,0.5631006,0.7664117,-0.4530316,7.4825826,0.23184708,-1.7333586,-0.8727879,-1.2055458,-0.5464238,-1.1377057,-1.3855622,-0.5278685,-1.252809,-0.72253186,-0.61421394,-1.6512142,-1.272092,-1.4849818,-1.1044263
-0.9179341,1.2448084,0.38368276,-0.4109088,-1.0103176,-0.1938632,0.24663566,-0.74426603,-1.0767208,-0.80094624,-2.3416407,-1.2837802,-0.9821305,-2.0746107,-1.2421725,-1.6485908,-1.0195706,-1.0831656,-1.3146901,-1.0837457
-0.9492234,-1.8707478,4.6224957,2.7505953,-2.874187,-1.4776584,-4.8965516,-7.8998666,-4.8238373,-2.7673035,-0.7571678,8.812902,-6.112691,-3.044741,-8.852961,-3.42399,3.6684568,-5.513444,3.0837557,-4.3645387
-0.4475785,1.796934,-3.543575,-0.9504172,-0.9965242,-0.4215423,-0.18463877,-0.7789926,-0.7839503,1.1316228,-1.2338141,-0.9693756,-1.6738878,-1.2284281,-0.7276395,-0.016845059,-0.8388533,-0.92063,-0.94768137,-0.98203135