0.6176805,-0.40988576,-8.59997,-7.764684,-10.510281,4.8624864,-11.799198,-12.982953,-15.007727,-11.856224,-11.478176,0.547193,-12.836268,-7.547102,-4.0872893,-10.966185,6.8742137,4.438457,7.004518,5.084668
0.04555739,0.50482273,1.1029357,-0.33676735,-2.1957097,-2.7652986,2.3254638,-3.9965394,-1.6440456,-2.6848052,-0.22659275,-2.5318007,0.34259352,-3.0187447,-0.6803342,-0.95790327,-0.9622464,-1.2552042,-1.5303401,-1.469738
-2.536542,5.800826,-2.6235816,5.6654553,-6.9752364,1.6088061,-4.8248014,6.8334117,-7.625812,-5.49328,9.397883,-6.830601,-1.9940124,-8.766057,-1.9842718,-2.5174952,-0.04622371,7.126955,-11.261253,-7.273014
3.3048558,-6.676246,-8.234667,2.9294815,-2.9625328,-11.518487,-2.5265687,2.0545936,6.0959206,7.117589,-10.561186,-6.309423,-6.3652596,-10.778118,-11.212421,4.2720222,-2.8057504,-6.532556,-9.659804,5.6199574
-3.4178402,1.0035784,0.094932795,7.793429,4.1438212,-0.6839687,-3.6907222,-3.2882197,0.4606497,-2.475822,-6.065665,1.8333645,3.2169724,-3.2565758,5.311014,-8.189976,0.36375105,-2.4769042,-3.4131548,7.2812757
0.11918681,2.9336286,2.5933235,-1.6728084,6.449902,-11.753572,-6.9747896,-12.784939,-6.4225492,-13.991824,-7.2068367,-10.885847,-10.732234,3.611098,-9.832285,7.8808274,-12.810213,-1.5168141,-1.7213366,5.693278
-0.91639084,0.4734147,1.4171067,1.3128564,-3.2413726,0.5819044,0.7050783,-1.4602056,-1.6128988,-1.1794275,-1.1923443,-2.0874314,-2.3881257,0.32454368,-0.9959063,-2.1700277,-1.1552054,-1.2209494,-1.6077558,-1.1212552
-0.17420201,2.4686813,0.22630528,-6.910247,-7.7279363,0.8807958,-0.25619897,-4.4422703,-3.0788405,-3.4971597,-4.5619764,-2.8139327,-3.5720868,-5.2781343,-5.1626086,3.0106242,-1.1899385,-4.6207657,-1.5138769,-5.239645
-0.9136443,0.64334357,2.5109725,0.4353361,-1.0161614,-0.2974832,-0.7195373,-0.9027784,-0.97901005,-0.7930978,-0.8726044,-1.3045204,-1.1104637,-1.0694575,-0.47648317,-0.24647832,-1.2095481,-0.92674875,-1.2615265,-0.97960424
-3.9979038,-6.070504,2.9970856,-8.154634,6.234794,9.277515,-3.7017062,3.3163571,-4.8398767,0.56655717,-4.415102,3.2270248,3.8811035,-6.426929,-7.7606,0.83252203,-0.28070933,-4.825253,-4.5702887,-6.659559
-1.0241339,-0.48123792,1.5287765,-4.2488112,-0.66642904,0.5750629,-0.7850442,-1.0455585,-1.6337103,3.4451668,-3.1965852,-1.4045211,-0.46773818,-1.3136137,-0.9820011,-3.3048465,-1.036767,-1.1622478,-3.1375425,-1.6263769
-0.86645633,1.7346663,0.56372994,-4.997882,-1.1732098,0.91567767,0.9679106,-1.3612851,-0.99550045,-0.69115263,-0.99242884,-1.211232,-0.964245,-3.8787117,1.6402823,-0.42051247,-0.9544743,-1.1658056,-1.3075424,-1.7414441
-1.7870647,-1.4488842,3.5323408,-2.8613234,5.181324,-1.6629473,4.745929,-2.0936823,-4.2808657,3.7470257,6.514398,5.3531804,-5.5381994,-10.134429,-3.1112065,-4.960904,-2.7101796,4.106631,-10.113793,-3.5772188
-0.5512498,-5.5677633,5.3272514,-0.92581946,-9.05549,-4.732844,8.806143,5.098216,1.2702377,-3.921883,2.6099386,-6.656027,-4.646082,3.951621,-3.2722192,-4.4992633,6.545306,-14.80584,-2.2554834,-3.7746584
1.3485843,2.6506886,-8.075094,2.4640381,0.024110848,2.8485887,-0.87013525,-5.294326,5.334628,2.788156,-1.3324134,-1.9079345,-9.739861,-9.987714,-4.37573,5.2180233,-3.3117197,-6.4035006,-1.618335,-7.6526814
-0.9451415,1.1534922,1.4495208,3.193787,-3.93749,-2.7188227,-1.496558,-3.5943565,2.024459,-1.37051,-1.777482,-1.8869904,-3.6424284,-4.756842,2.9415934,0.40780696,-0.64765626,-1.3184943,-0.054536402,-1.7433078
2.4300706,-5.740015,-4.476066,-0.6033356,-4.1979275,-3.5053766,-2.1984363,4.5844865,-12.561576,-4.524503,-10.207487,-9.698233,-8.871388,2.0504282,3.0431437,5.2279725,-6.6027436,1.237071,3.1827576,-4.673755
-0.59453446,0.6912046,0.57084805,7.1342974,6.365296,1.2629727,4.2268643,-7.399566,-9.903592,-8.205554,-15.296048,-3.7051866,6.7897143,-6.426123,-8.758894,-7.7233863,-12.683851,-12.413114,-15.026342,-8.322678
4.171524,2.2300022,-1.5591846,-5.440772,7.7318106,5.611287,-7.9293513,-10.75137,-1.1279541,-4.2247076,-5.931898,-10.771407,-9.514331,-3.1280742,7.8456135,-5.99441,0.42903212,-2.394896,-10.332998,-1.0450717
-0.91799545,0.48808962,3.0481553,-0.21169285,-2.112794,-0.7763405,0.2831501,-1.0438418,-0.9629875,-0.80658615,-1.045354,-1.1757059,-1.0430232,-1.3599701,-0.85827637,0.08348381,-0.9939379,-1.1008441,-1.2627585,-1.0774623
-5.313377,2.6222942,6.504162,-2.699676,-12.920802,6.253562,-5.3497863,7.6389027,-0.8506231,7.575956,-5.7021184,-4.688574,-2.3223822,6.407996,-1.8633379,-7.67683,-6.3360314,-3.8873653,-7.336191,-9.700626
-0.9478,0.6925277,2.0625033,0.35864246,-4.403378,-0.049816385,-2.1312072,-1.5935879,0.47309428,0.124673665,-1.0138323,-1.6483845,-1.6794746,-1.2420391,1.7523621,-0.23312294,-0.9888966,-1.2733808,-1.4544936,-0.9547369
-0.92318475,1.1280999,2.8550012,-4.5934873,2.1239178,-2.9018686,1.4654528,-4.5271263,-3.0020049,-0.8656846,-0.93065184,0.98119473,-1.44385,-1.2634734,-0.3457061,2.7837832,-0.90586233,-1.2129885,-0.60013455,-1.0072403
-0.6846004,0.14968276,-0.77482307,-4.306182,-7.3318863,0.11076549,3.7457101,3.481704,-1.9581354,-3.3861651,2.0157192,0.43290028,-4.5960207,-8.403036,-3.3552418,-2.777965,-3.7668598,-1.0117464,-7.0590305,-3.3661501
-3.6638618,-0.78127927,1.817062,-7.2792535,-8.196072,0.8880418,2.330147,-0.3809067,-1.8698276,2.2262342,-3.9114227,6.446624,-6.473169,-7.598351,5.825448,8.371092,-2.7250924,-7.360057,-4.961917,1.6186045
-0.94654596,1.8560467,1.4037476,0.22005369,-0.46172678,-2.2582133,1.3531603,-1.1404328,-1.2527599,-1.0016842,-1.0261669,-0.909986,-2.451678,-1.2971371,-0.059675213,-2.1051083,-1.1924236,-1.1926594,-4.789828,-7.0814233
2.3025455,3.4605486,-4.8258114,-9.328129,-9.981099,-11.590205,0.19839087,-13.45659,-9.1507,3.343094,6.917522,-8.032542,1.9778669,-0.7463486,0.63163894,-7.657477,-7.724677,-7.5672574,5.175552,-0.54129
-0.83107126,2.5315456,1.4217219,-6.3206725,-5.907417,-0.24272941,1.2661283,-2.6319644,-1.6268847,-1.2037972,-1.1698283,-1.0821592,-1.8147774,-7.25392,2.0942273,-2.458572,-1.1278683,-4.217093,-1.6623986,-1.167985
-0.60194105,-1.2613916,7.107365,-6.7134323,5.380225,-7.66779,-4.612059,-3.7508247,-2.6901102,3.1540031,2.7826793,-1.3383437,-2.9247084,-7.0540752,3.6645522,-3.4618535,-4.0389895,0.52713424,0.8267147,1.2184159
-0.89033294,1.0620557,2.3246157,-0.51587826,-1.1758757,-0.63098544,-1.1393125,-2.4187434,-1.1514645,-0.8407751,-1.204816,-1.3358977,-1.0976578,-1.061332,-0.6019501,-0.75303245,-1.0186744,-0.9892172,-1.2180856,-1.0846094
-1.1262635,1.2179351,3.445264,-3.437985,-1.5655044,-2.8700109,0.44354692,-1.1069146,-1.5573255,-0.453251,-1.1569563,-1.0790988,-2.1021996,0.8145233,-0.38772014,-0.4615172,-1.220056,-1.1443765,-2.6914139,-0.65347064
0.2575155,1.9273992,3.5404391,-3.2606957,1.0900685,-3.2191832,-6.5504127,-8.146866,8.455789,-3.0301504,-1.3430191,-3.4799957,-1.2756238,1.981336,-4.816843,-3.9784036,4.87668,-4.682718,-2.9165928,-7.164165
2.2382138,-2.5786104,-7.303184,-1.9904197,-5.478153,-0.18003133,-0.069341786,-9.580289,4.587575,-4.1940804,-7.1673336,-0.8977965,3.1654801,9.769341,-7.7621694,-7.6044054,-6.175985,4.01015,-0.7243978,-3.8044271
-0.9156916,0.47834066,2.4143534,0.13288733,-0.58522755,-0.95717484,-0.52522117,-1.0139382,-1.2003386,-0.82313234,-1.1223835,-1.4053446,-1.1872435,-1.2360517,-0.3065056,-0.1629399,-1.0604117,-1.0512786,-1.2838048,-1.0130352
5.7073956,-0.23127124,-1.3315524,-11.329384,-1.6530595,-7.8641176,-2.6334462,1.8802004,-7.7800784,-4.9852595,1.094255,0.026893582,-6.836298,-4.047703,-3.0561173,-3.556661,-3.6383848,3.7622414,-3.1272025,-4.4946833
-0.8853052,1.5918257,1.1162952,-5.1244473,-2.2754874,0.8178594,-0.47293565,-2.7887669,-1.2566279,1.258902,-1.0415987,0.96324086,-0.9931568,-1.4165926,-0.7096076,0.8076385,-1.0694925,-4.228208,-1.2091225,-0.92071885
-1.2984627,0.0138995405,-0.5036185,4.9813704,1.026906,-4.474746,2.7166228,-9.466705,-10.415138,3.4578779,-5.059732,-3.0874972,2.4863062,-4.2460237,-0.932966,-0.43002343,2.2745492,-4.255432,-4.665246,-6.447608
-1.1240386,2.9252071,-4.792715,-6.9395995,-2.1173718,-8.647378,-2.0003905,6.5946913,-9.603904,-0.9752677,-8.173334,-1.606139,8.654816,-5.5030627,-1.5666912,1.8844253,0.3937012,2.0595865,-8.739854,-4.5748267
-0.86220306,0.16997446,3.0530467,2.04243,-0.8913386,-0.7479701,-0.88312805,-0.90349656,-0.9932331,-0.70841354,-0.97491634,-1.2377751,-0.7089322,-1.3765138,-0.5076064,-0.44547302,-1.1930904,-1.1376965,-1.2682456,-0.9582582
-5.060084,3.7703848,-5.7675085,3.7431803,5.306802,-3.89933,5.1865025,-0.6216936,-3.189877,1.0562947,-4.6469083,1.4887052,-8.975053,-6.3558717,-3.564006,-0.3372755,-5.011874,-4.157877,8.355212,-14.790541
-0.9392994,1.1155521,3.6924043,-5.08749,2.626391,-3.4171662,6.6713495,-4.663487,-3.8313217,-0.6178621,-1.0005957,0.41156545,-3.7663705,-5.5026717,1.6698532,-3.026718,-0.92101496,-1.1123977,-1.6002747,-0.86355466
-0.8953274,0.52587456,2.1552966,-1.1725162,-4.286822,1.8874105,-2.5569375,-1.0823954,-1.1959867,-0.45997062,-0.98280877,0.41386226,-1.7662313,-1.3139194,-1.794397,-0.72204465,-1.1531179,-1.0472342,-1.2531856,-1.1100757
-0.913963,0.96741873,1.848036,3.532174,-3.9472506,-0.97158664,-2.7632406,-1.627466,-1.1240945,-0.65518457,-0.87190926,-2.1470897,-1.4086303,-0.93388057,-0.6542345,3.2771897,-1.1309558,-0.9682554,-1.2657912,-1.9235455
-1.0652825,0.36005977,1.9748065,-4.2847943,-3.6759439,1.9349024,-2.20977,-1.7903479,-2.0432794,-3.0502677,-0.8330821,1.0972247,-2.278496,-1.153995,-0.3476235,0.9871724,-0.9130302,-1.6569983,-2.0294733,-2.8802142
-0.8988876,1.6224344,1.135064,1.3536747,-3.9877315,-0.05738361,3.5178263,-1.1719763,-1.1131307,-0.63086176,1.6853952,-1.2661692,-0.9817892,-1.190622,-0.69674337,0.060682967,-0.989891,-1.0911368,-1.3602178,-0.9702032
0.4288479,0.7300498,1.1854718,-7.5643873,-4.3615475,-1.0851587,4.8852925,-0.27647936,-3.5544894,-4.3506117,-5.4011865,-1.651419,4.386324,-7.6364374,-2.6740139,-10.44938,-0.25021422,-4.99263,-0.99331766,-5.309085
-0.91847336,0.93898046,0.8733665,-2.170832,11.113289,-3.1152027,-0.81342655,-1.6746414,-1.6929469,-0.5077872,-1.1250762,-1.2849956,-0.82206994,-3.6983664,-0.9598045,-0.61380374,-1.6639615,-1.264922,-1.5906477,-1.36311
-0.9215878,2.2990885,1.1563572,-5.263902,-0.7794772,-4.858528,0.18426774,-3.8641584,-1.7182074,-2.538722,-2.34352,0.27560568,-3.3004785,-6.357617,1.5490803,0.5793633,-0.97279155,-1.1173646,-0.40757158,-1.0138371
-0.11086521,-2.0135965,5.458605,3.0856009,-5.872446,-1.3107948,-8.285077,-14.1378975,-4.7044883,-3.4009576,-1.4641967,9.737172,-7.893754,-1.4961828,-12.103265,-2.5478067,4.452915,-7.686587,1.2019502,-6.5639663
-0.19616471,4.2794476,-4.070487,-1.9830108,-0.870468,-4.5476027,-4.122179,-0.3830723,1.3409994,-1.4681597,-1.6103727,0.98749655,-1.3722119,-3.9899683,1.0926958,-4.304428,-0.8876158,-6.4854774,-0.9288254,-4.292244